{"fc.weight": [[0.42480000853538513, 0.17790000140666962, -2.325200080871582, -0.0820000022649765, 0.005100000184029341, -0.7587000131607056, -0.11140000075101852, 0.2791000008583069, -0.011599999852478504, 0.049400001764297485, 0.3720000088214874, -0.07169999927282333, 0.022700000554323196, -0.020899999886751175, 0.6924999952316284, -0.1451999992132187, -1.5312999486923218, -0.6891000270843506, -0.37700000405311584, -0.47760000824928284, 0.7975000143051147, -0.19130000472068787, -0.5782999992370605, -0.29980000853538513, 0.12950000166893005, 0.8547000288963318, -0.6514000296592712, -0.19429999589920044, -1.2305999994277954, -0.43860000371932983, 0.5048999786376953, -0.510699987411499, -0.243599995970726, 0.00930000003427267, 0.3269999921321869, 0.3359000086784363, 0.006099999882280827, 0.7993999719619751, 0.06520000100135803, -0.05869999900460243, 0.6747999787330627, 0.4699999988079071, -0.0723000019788742, -0.6105999946594238, 0.22190000116825104, 0.05810000002384186, 0.3666999936103821, 1.3753999471664429, -0.7084000110626221, -0.16930000483989716, 0.4253999888896942, 0.06319999694824219, 0.6051999926567078, -0.2976999878883362, 1.9811999797821045, -0.30300000309944153, 0.7638999819755554, -0.042500000447034836, -0.0763000026345253, -0.7680000066757202, -0.19220000505447388, 1.1663000583648682, 0.05869999900460243, -0.36489999294281006, -0.06390000134706497, 0.20739999413490295, -1.1375000476837158, -1.7425999641418457, -0.3553999960422516, 0.021700000390410423, -0.31119999289512634, 0.2387000024318695, -0.48989999294281006, 0.9667999744415283, -0.25920000672340393, 0.047600001096725464, -1.1426000595092773, 0.16850000619888306, 0.7257999777793884, -0.32919999957084656, 1.3307000398635864, 0.011800000444054604, 0.1517000049352646, -0.19679999351501465, -0.04830000177025795, -0.004600000102072954, 0.31769999861717224, 0.21870000660419464, 0.1923999935388565, -0.2214999943971634, 0.6890000104904175, -1.385599970817566, 0.7921000123023987, -0.08449999988079071, 0.6991000175476074, -0.4388999938964844, -0.030400000512599945, -0.3041999936103821, 0.3122999966144562, 0.28999999165534973, 0.05510000139474869, 0.29330000281333923, -0.07620000094175339, 0.8755000233650208, 0.5342000126838684, 1.5621000528335571, 0.5544000267982483, 0.32170000672340393, 0.8863000273704529, 1.1806000471115112, 0.2651999890804291, -0.4223000109195709, 0.1582999974489212, -0.3199000060558319, 0.2556000053882599, 0.9307000041007996, 1.1180000305175781, 0.1088000014424324, -0.7157999873161316, 0.570900022983551, 0.4966999888420105, 0.4830000102519989, 0.058400001376867294, 1.0729000568389893, -0.5568000078201294, -0.04569999873638153, -1.6024999618530273, -0.25119999051094055, 0.9488000273704529, -0.11159999668598175, 0.18310000002384186, -0.3765999972820282, -0.20160000026226044, -0.869700014591217, 0.10249999910593033, 0.257099986076355, 0.3912999927997589, -0.02800000086426735, 0.4575999975204468, 0.11079999804496765, -0.3303000032901764, 0.5773000121116638, 0.12870000302791595, 0.4025999903678894, -0.17730000615119934, 0.1973000019788742, -0.21439999341964722, 0.25369998812675476, 0.06289999932050705, -1.4571000337600708, 0.9020000100135803, 0.4350000023841858, 0.13529999554157257, -0.598800003528595, -0.05590000003576279, -1.1167999505996704, -0.7526999711990356, 0.3930000066757202, 0.7129999995231628, -1.377500057220459, -0.15279999375343323, 1.090000033378601, 0.4984000027179718, -0.617900013923645, 0.16519999504089355, -0.46129998564720154, -0.15080000460147858, 0.19099999964237213, 0.005400000140070915, 0.11180000007152557, 0.12549999356269836, 0.5891000032424927, 0.329800009727478, 0.9143000245094299, -1.7755000591278076, 0.2678000032901764, 0.3142000138759613, 0.09679999947547913, -0.06800000369548798, 0.3416999876499176, 0.009800000116229057, 0.13590000569820404, 0.8133000135421753, -0.4607999920845032, -0.28949999809265137, -1.6066999435424805, 0.4196999967098236, -1.277999997138977, 0.19979999959468842, 0.767799973487854, 0.796500027179718, 0.26510000228881836, 0.2232999950647354, 0.7767000198364258, -0.7421000003814697, 0.4498000144958496, 0.8549000024795532, -0.21410000324249268, -0.947700023651123, 1.1756000518798828, 0.08449999988079071, -0.36970001459121704, -0.6017000079154968, -0.07859999686479568, -0.4481000006198883, -0.10170000046491623, -0.41920000314712524, -0.1867000013589859, -0.18529999256134033, -0.29829999804496765, -1.2956000566482544, 0.09009999781847, 0.8269000053405762, -2.010999917984009, -0.22059999406337738, 0.2565999925136566, -1.0709999799728394, -0.67330002784729, -0.16419999301433563, 0.34200000762939453, 0.18199999630451202, -1.3320000171661377, -0.04989999905228615, 0.07670000195503235, -0.6718999743461609, 0.12349999696016312, 0.47679999470710754, 0.023800000548362732, 0.47690001130104065, -0.01889999955892563, -0.34290000796318054, -0.5067999958992004, -1.5540000200271606, -0.2816999852657318, -0.25029999017715454, 0.07450000196695328, 0.7195000052452087, 0.39399999380111694, 0.3720000088214874, -0.7113000154495239, -0.8946999907493591, 0.1289999932050705, 0.030700000002980232, -0.704200029373169, -0.12219999730587006, -0.2971000075340271, 0.2296999990940094, -0.20499999821186066, -0.18549999594688416, 0.17440000176429749, 0.6014999747276306, 1.298699975013733, 0.5784000158309937, -1.2109999656677246, 0.1679999977350235, 0.0674000009894371, 0.5329999923706055, -0.5685999989509583, 0.08269999921321869, -0.13050000369548798, -0.7644000053405762, 0.6794000267982483, 0.4519999921321869, -0.2614000141620636, 0.2061000019311905, 0.3172000050544739, -0.6083999872207642, -0.1437000036239624, 0.329800009727478, 0.30390000343322754, -0.6991000175476074, -0.05700000002980232, 0.6509000062942505, 0.024700000882148743, 1.3203999996185303, 0.3156000077724457, 0.026100000366568565, 0.2540999948978424, -0.17159999907016754, -0.1525000035762787, 0.8669000267982483, -0.020800000056624413, 1.0463999509811401, -0.7953000068664551, 0.2468000054359436, 0.7107999920845032, 0.5724999904632568, -0.4699999988079071], [-0.3594000041484833, -0.010400000028312206, 0.5116999745368958, 0.8815000057220459, 1.2273000478744507, 0.453900009393692, 0.29109999537467957, -1.4687000513076782, 0.43689998984336853, 0.8230000138282776, -0.020899999886751175, 0.5491999983787537, 1.1739000082015991, -0.1559000015258789, 0.6014999747276306, -0.3718000054359436, -0.1728000044822693, 0.06379999965429306, 1.132599949836731, 0.5641000270843506, -1.0513999462127686, 0.7001000046730042, 0.7267000079154968, -0.5126000046730042, -0.02759999968111515, -0.10170000046491623, 0.21089999377727509, 0.46630001068115234, 0.29339998960494995, 0.31779998540878296, 0.4259999990463257, 0.5629000067710876, -0.718500018119812, -0.07370000332593918, -0.6710000038146973, 0.2930999994277954, 0.4348999857902527, -0.031199999153614044, -0.6682999730110168, 0.4603999853134155, 0.3312999904155731, -0.002199999988079071, 0.34049999713897705, -0.22689999639987946, 0.7964000105857849, 0.5012999773025513, 0.5131999850273132, -0.09809999912977219, -0.3873000144958496, 0.1273999959230423, -0.8105999827384949, 1.1140999794006348, -0.9110000133514404, -0.4011000096797943, -0.590399980545044, 0.15150000154972076, -0.10130000114440918, -0.453900009393692, 0.1216999962925911, 0.5752999782562256, -0.9495000243186951, -0.14020000398159027, 1.0254000425338745, 0.10859999805688858, 1.4416999816894531, 1.9845999479293823, -0.09939999878406525, -0.0794999971985817, 0.4740000069141388, 0.925000011920929, 1.249400019645691, -0.15489999949932098, 0.555899977684021, -0.05460000038146973, -0.7084000110626221, 0.038100000470876694, 0.4602999985218048, 1.4457000494003296, -0.7889000177383423, 0.049800001084804535, -0.3463999927043915, 0.5885000228881836, -0.09520000219345093, 0.24619999527931213, -0.5972999930381775, 0.0949999988079071, -0.094200000166893, -0.47940000891685486, -0.5485000014305115, 0.5917999744415283, 0.32690000534057617, -0.6177999973297119, 0.2353000044822693, 0.09939999878406525, -0.8122000098228455, 0.9261000156402588, 0.3366999924182892, 0.008200000040233135, 0.22040000557899475, 0.43050000071525574, 0.7034000158309937, -0.28700000047683716, -0.8407999873161316, 0.8955000042915344, 0.3650999963283539, 0.6241999864578247, 0.7091000080108643, -1.19159996509552, 0.31929999589920044, 0.5164999961853027, 0.6320000290870667, -0.35350000858306885, -0.9811000227928162, 1.3896000385284424, -0.6553999781608582, 0.9487000107765198, 1.176900029182434, -0.27619999647140503, -0.5271000266075134, 0.15880000591278076, -0.29649999737739563, 1.0354000329971313, -0.6007000207901001, 0.6018000245094299, 0.34880000352859497, 0.25850000977516174, -0.7754999995231628, 0.13420000672340393, 1.0157999992370605, 0.11869999766349792, -0.5340999960899353, 0.057100001722574234, 1.298200011253357, 0.1703999936580658, -0.7621999979019165, 0.9351000189781189, 0.7315999865531921, -0.9413999915122986, 0.4934999942779541, 0.3756999969482422, 1.5355000495910645, 1.087399959564209, 0.2151000052690506, 0.8219000101089478, -0.4846999943256378, -0.19840000569820404, -0.1615000069141388, -0.3707999885082245, -0.09350000321865082, -0.1784999966621399, 0.7178999781608582, -0.5796999931335449, -0.6018999814987183, -0.00019999999494757503, 0.10270000249147415, 0.40639999508857727, -1.534600019454956, -0.39800000190734863, -0.01269999984651804, 1.090399980545044, -0.7742000222206116, 0.6765000224113464, -1.1133999824523926, 0.12129999697208405, 1.2374000549316406, -0.20170000195503235, 0.9187999963760376, 0.8051000237464905, 0.45879998803138733, -0.5630000233650208, 0.5371999740600586, -0.267300009727478, -0.3822999894618988, 0.5813999772071838, -0.16580000519752502, -0.2410999983549118, 0.10499999672174454, 0.3449999988079071, 0.3327000141143799, -0.9740999937057495, 0.08500000089406967, 0.628600001335144, -0.5536999702453613, 0.22840000689029694, 0.27149999141693115, 0.8902000188827515, -1.0348999500274658, 0.02539999969303608, 0.6744999885559082, -1.105299949645996, 0.5802000164985657, 0.31040000915527344, -0.41609999537467957, 1.330899953842163, 0.12950000166893005, -0.1834000051021576, 0.5831999778747559, -0.22859999537467957, -0.2159000039100647, -1.0776000022888184, 1.426200032234192, 0.28690001368522644, -0.03370000049471855, -0.7189000248908997, -1.0190999507904053, 0.007699999958276749, 0.1581999957561493, -0.4544000029563904, -0.3935000002384186, 0.2231999933719635, 0.6123999953269958, -0.3199000060558319, 0.8409000039100647, -0.6807000041007996, -0.4498000144958496, -0.6988000273704529, 0.46129998564720154, -0.23119999468326569, 0.3021000027656555, -0.5843999981880188, 0.2971000075340271, 0.04450000077486038, -0.6693999767303467, 1.1055999994277954, -0.1005999967455864, -0.8543000221252441, 0.20970000326633453, -0.18770000338554382, -0.9416999816894531, -0.3977000117301941, 0.1137000024318695, -0.17430000007152557, 0.00279999990016222, -0.5138999819755554, 0.4934999942779541, 0.029600000008940697, 0.7856000065803528, 0.2151000052690506, 0.4009999930858612, -1.0872999429702759, 0.8108999729156494, 0.16269999742507935, 0.3962000012397766, 1.8437999486923218, 0.5536999702453613, 0.8992999792098999, -0.5465999841690063, -1.7466000318527222, -0.5590999722480774, 0.1014999970793724, 0.2822999954223633, 0.6614999771118164, -0.19660000503063202, -0.21729999780654907, 0.8773999810218811, -0.4074999988079071, 0.19850000739097595, 0.3889000117778778, 0.6661999821662903, 0.08429999649524689, -0.030899999663233757, -0.05849999934434891, -0.6766999959945679, -0.5587000250816345, -0.39590001106262207, 0.9886000156402588, -0.4607999920845032, -0.20880000293254852, 0.7452999949455261, -0.2443999946117401, 0.5353000164031982, 0.5760999917984009, 0.6437000036239624, 0.7260000109672546, 0.18880000710487366, -0.04960000142455101, -0.027799999341368675, 0.35670000314712524, 0.19480000436306, 0.3034000098705292, 0.5220999717712402, -0.6710000038146973, -0.41510000824928284, -0.5623999834060669, -0.3472000062465668, 0.26330000162124634, 0.654699981212616, -1.2700999975204468], [-0.2802000045776367, -0.22110000252723694, 1.5956000089645386, -0.3093000054359436, -0.9262999892234802, -0.023399999365210533, 0.3732999861240387, -0.12630000710487366, 0.8102999925613403, 0.5335000157356262, -0.44209998846054077, 0.16419999301433563, 1.3538999557495117, 1.0288000106811523, -0.2680000066757202, -1.3207000494003296, 0.7465000152587891, -0.48730000853538513, -0.44690001010894775, -1.3990999460220337, 0.791100025177002, -0.5527999997138977, 0.48829999566078186, 0.4641000032424927, 0.35670000314712524, -0.08470000326633453, 0.4366999864578247, 1.0645999908447266, 0.4408000111579895, 0.5001000165939331, -0.4564000070095062, 0.27950000762939453, 0.23720000684261322, -0.17219999432563782, -0.5383999943733215, -0.4512999951839447, 0.17239999771118164, -0.35370001196861267, 0.15610000491142273, -0.6608999967575073, 0.9456999897956848, 0.6183000206947327, 0.24799999594688416, -0.04600000008940697, -0.24959999322891235, 0.7961000204086304, -0.39800000190734863, -1.0923999547958374, -1.7582000494003296, -0.19249999523162842, 0.8098999857902527, 0.014999999664723873, -0.6690000295639038, -0.516700029373169, 1.5587999820709229, 0.36820000410079956, -0.25529998540878296, -1.1572999954223633, -0.12839999794960022, -1.1405999660491943, -0.0658000037074089, 0.9509999752044678, -0.9878000020980835, 0.39559999108314514, -0.31700000166893005, 0.03150000050663948, -0.590399980545044, 0.6092000007629395, 0.11100000143051147, 0.4431000053882599, -0.3734999895095825, 0.2870999872684479, -0.33000001311302185, 0.48829999566078186, -0.7202000021934509, -0.3921000063419342, 0.16110000014305115, -0.6248999834060669, -0.438400000333786, 0.3375999927520752, -0.5343999862670898, -0.17730000615119934, 0.12950000166893005, 0.12549999356269836, -0.1378999948501587, -0.39259999990463257, 0.24779999256134033, 0.19300000369548798, 0.5995000004768372, 0.24050000309944153, 0.02250000089406967, 1.565999984741211, 0.2597000002861023, -0.6445000171661377, -0.1429000049829483, -1.3092000484466553, 0.20659999549388885, -0.41179999709129333, -0.020500000566244125, -0.5421000123023987, -0.453000009059906, -0.2071000039577484, -0.4593000113964081, 0.4462999999523163, -0.275299996137619, 0.8105999827384949, 0.7644000053405762, 0.8712999820709229, 0.09319999814033508, -0.17409999668598175, 0.4765999913215637, -0.5483999848365784, -0.29580000042915344, -1.604099988937378, -0.019500000402331352, -0.00430000014603138, -0.4397999942302704, -0.42500001192092896, -0.4715000092983246, -0.5717999935150146, 0.8224999904632568, 0.05290000140666962, -0.5264000296592712, 0.40939998626708984, 0.8888999819755554, 0.29499998688697815, 1.1208000183105469, -0.10559999942779541, -0.7190999984741211, 0.6650999784469604, -0.4478999972343445, -0.9532999992370605, 0.4343000054359436, -0.1873999983072281, 0.314300000667572, -0.5371000170707703, -0.2029999941587448, -0.46630001068115234, -1.1449999809265137, -0.1469999998807907, 0.07540000230073929, -0.2087000012397766, 1.437999963760376, -0.27810001373291016, 0.7041000127792358, -0.718999981880188, 0.003599999938160181, 0.3799000084400177, -0.989300012588501, 0.26600000262260437, -0.029200000688433647, 0.17630000412464142, 0.13680000603199005, 0.7318999767303467, 0.8263000249862671, 0.2903999984264374, 0.5397999882698059, 0.26579999923706055, -0.33469998836517334, 0.6062999963760376, -0.3596000075340271, 0.6815000176429749, 0.29280000925064087, 0.5094000101089478, -0.43140000104904175, -0.029200000688433647, 0.2282000035047531, 0.5425999760627747, -0.7315999865531921, 0.7838000059127808, -0.8355000019073486, -0.15559999644756317, 0.3310999870300293, 0.35679998993873596, 0.6844000220298767, 0.4368000030517578, -0.5149999856948853, -0.35530000925064087, 0.7189000248908997, -0.18000000715255737, -0.9470999836921692, 0.478300005197525, 0.3917999863624573, 0.28130000829696655, 0.09849999845027924, 0.2964000105857849, -0.013199999928474426, 0.31150001287460327, 0.5673999786376953, -0.5216000080108643, -0.2134999930858612, -0.20250000059604645, -1.1369999647140503, -0.6449999809265137, 0.13089999556541443, 1.3115999698638916, 0.8644999861717224, -0.10760000348091125, -0.43650001287460327, -0.8651999831199646, 0.10719999670982361, -0.3052000105381012, -0.4275999963283539, 0.11060000211000443, 0.4027000069618225, -0.3605000078678131, 0.1371999979019165, -0.5340999960899353, 1.0455000400543213, 0.44339999556541443, -0.23409999907016754, -1.107800006866455, 0.13650000095367432, 0.22630000114440918, -0.23520000278949738, 0.31700000166893005, -0.094200000166893, 0.06469999998807907, 0.10189999639987946, -1.6229000091552734, 0.14219999313354492, -0.8540999889373779, -0.20730000734329224, 0.739300012588501, 0.9520000219345093, -1.6368000507354736, -0.3504999876022339, 0.2547000050544739, -2.1013998985290527, 1.215000033378601, -0.9059000015258789, -0.5929999947547913, -0.2078000009059906, -0.9225000143051147, 0.9460999965667725, -1.2479000091552734, -0.12389999628067017, 0.9387000203132629, 0.14890000224113464, -0.2720000147819519, 0.22789999842643738, -0.5830000042915344, -0.6644999980926514, 0.05180000141263008, 0.6416000127792358, 0.47429999709129333, -0.40389999747276306, 0.3675000071525574, -0.2840000092983246, -0.45320001244544983, -0.06369999796152115, -0.35350000858306885, 0.8203999996185303, -0.15479999780654907, -1.0174000263214111, -0.20569999516010284, 1.304900050163269, -0.4099000096321106, -0.6065999865531921, 0.24089999496936798, -0.024900000542402267, 0.8928999900817871, 0.552299976348877, 0.2818000018596649, 0.12800000607967377, 0.33959999680519104, 0.3061999976634979, -0.7954000234603882, -0.8294000029563904, 0.6757000088691711, -0.07010000199079514, -0.35370001196861267, 0.7714999914169312, 1.4522000551223755, 0.08410000056028366, 1.5003999471664429, 0.15199999511241913, -0.6819000244140625, 0.6953999996185303, 0.049400001764297485, -0.9369000196456909, -0.10080000013113022, -0.5353000164031982, 0.8223000168800354, -0.8521000146865845, -0.8665000200271606, -0.07199999690055847, -0.41350001096725464]], "fc.bias": [-0.2152000069618225, 0.9962000250816345, -0.574400007724762]}